svm_type epsilon_svr
kernel_type rbf
gamma 0.00390625
nr_class 2
total_sv 234
rho 0.0229335
probA 0.15668
SV
-0.5 1:-0.973028 2:-0.995006 3:-0.973422 4:-0.967697 5:-0.97703 6:-1 7:-0.982468 8:-0.947566 9:-0.940199 10:-0.94382 11:-0.950053 12:-0.961047 13:-0.973028 14:-0.998752 15:-0.982724 16:-0.95927 17:-0.988391 18:-0.369446 
0.5 1:-0.982468 2:-0.947566 3:-0.940199 4:-0.94382 5:-0.950053 6:-0.954504 7:-0.973028 8:-0.998752 9:-0.982724 10:-0.95927 11:-0.988391 12:-0.369446 13:-1 14:-0.986267 15:-0.978738 16:-0.963483 17:-0.9823 18:-0.0225198 
0.5 1:-0.973028 2:-0.998752 3:-0.982724 4:-0.95927 5:-0.988391 6:-0.364877 7:-1 8:-0.986267 9:-0.978738 10:-0.963483 11:-0.9823 12:-0.0225198 13:-0.979771 14:-0.951311 15:-0.932226 16:-0.948034 17:-0.898669 18:0.530006 
-0.5 1:-1 2:-0.986267 3:-0.978738 4:-0.963483 5:-0.9823 6:-0.0191083 7:-0.979771 8:-0.951311 9:-0.932226 10:-0.948034 11:-0.898669 12:0.530006 13:-0.91234 14:-0.808989 15:-0.79402 16:-0.901685 17:-0.578739 18:0.883141 
-0.5 1:-0.979771 2:-0.951311 3:-0.932226 4:-0.948034 5:-0.898669 6:0.531574 7:-0.91234 8:-0.808989 9:-0.79402 10:-0.901685 11:-0.578739 12:0.883141 13:-0.827377 14:-0.86392 15:-0.872425 16:-0.848315 17:-0.82613 18:0.90453 
-0.5 1:-0.91234 2:-0.808989 3:-0.79402 4:-0.901685 5:-0.578739 6:0.88353 7:-0.827377 8:-0.86392 9:-0.872425 10:-0.848315 11:-0.82613 12:0.90453 13:-0.890762 14:-0.908864 15:-0.893688 16:-0.876404 17:-0.950357 18:0.748935 
0.5 1:-0.890762 2:-0.908864 3:-0.893688 4:-0.876404 5:-0.950357 6:0.749773 7:-0.919083 8:-0.940075 9:-0.936213 10:-0.908708 11:-0.947682 12:1 13:-0.944707 14:-0.963795 15:-0.936213 16:-0.925562 17:-0.981636 18:0.920024 
-0.5 1:-0.919083 2:-0.940075 3:-0.936213 4:-0.908708 5:-0.947682 6:1 7:-0.944707 8:-0.963795 9:-0.936213 10:-0.925562 11:-0.981636 12:0.920024 13:-0.943358 14:-0.952559 15:-0.921595 16:-0.932584 17:-0.983175 18:0.915509 
0.5 1:-0.944707 2:-0.963795 3:-0.936213 4:-0.925562 5:-0.981636 6:0.920291 7:-0.943358 8:-0.952559 9:-0.921595 10:-0.932584 11:-0.983175 12:0.915509 13:-0.91234 14:-0.942572 15:-0.944186 16:-0.919944 17:-0.990655 18:-1 
-0.5 1:-0.943358 2:-0.952559 3:-0.921595 4:-0.932584 5:-0.983175 6:0.915791 7:-0.91234 8:-0.942572 9:-0.944186 10:-0.919944 11:-0.990655 12:-1 13:-0.954147 14:-0.965044 15:-0.92691 16:-0.933989 17:-0.993456 18:-0.958238 
0.5 1:-0.91234 2:-0.942572 3:-0.944186 4:-0.919944 5:-0.990655 6:-0.993327 7:-0.954147 8:-0.965044 9:-0.92691 10:-0.933989 11:-0.993456 12:-0.958238 13:-0.932569 14:-0.957553 15:-0.950831 16:-0.925562 17:-0.964856 18:-0.456047 
-0.5 1:-0.932569 2:-0.957553 3:-0.950831 4:-0.925562 5:-0.964856 6:-0.451189 7:-0.96089 8:-0.98377 9:-0.941528 10:-0.925562 11:-1 12:-0.1479 13:-0.924477 14:-0.958801 15:-0.937542 16:-0.911517 17:-0.975063 18:0.344081 
0.5 1:-0.96089 2:-0.98377 3:-0.941528 4:-0.925562 5:-1 6:-0.14407 7:-0.924477 8:-0.958801 9:-0.937542 10:-0.911517 11:-0.975063 12:0.344081 13:-0.927175 14:-0.961298 15:-0.949502 16:-0.921348 17:-0.976145 18:0.664674 
-0.5 1:-0.924477 2:-0.958801 3:-0.937542 4:-0.911517 5:-0.975063 6:0.346269 7:-0.927175 8:-0.961298 9:-0.949502 10:-0.921348 11:-0.976145 12:0.664674 13:-0.959541 14:-0.971286 15:-0.930897 16:-0.929775 17:-0.941743 18:0.698664 
0.5 1:-0.927175 2:-0.961298 3:-0.949502 4:-0.921348 5:-0.976145 6:0.665792 7:-0.959541 8:-0.971286 9:-0.930897 10:-0.929775 11:-0.941743 12:0.698664 13:-0.939312 14:-0.971286 15:-0.954817 16:-0.925562 17:-0.963541 18:0.566823 
-0.5 1:-0.959541 2:-0.971286 3:-0.930897 4:-0.929775 5:-0.941743 6:0.699669 7:-0.939312 8:-0.971286 9:-0.954817 10:-0.925562 11:-0.963541 12:0.566823 13:-0.964936 14:-0.96005 15:-0.937542 16:-0.924157 17:-0.940898 18:0.80426 
-0.5 1:-0.939312 2:-0.971286 3:-0.954817 4:-0.925562 5:-0.963541 6:0.568268 7:-0.964936 8:-0.96005 9:-0.937542 10:-0.924157 11:-0.940898 12:0.80426 13:-0.946055 14:-0.970037 15:-0.952159 16:-0.925562 17:-0.959279 18:0.73931 
0.5 1:-0.964936 2:-0.96005 3:-0.937542 4:-0.924157 5:-0.940898 6:0.804914 7:-0.946055 8:-0.970037 9:-0.952159 10:-0.925562 11:-0.959279 12:0.73931 13:-0.962239 14:-0.997503 15:-1 16:-1 17:-0.898472 18:0.737444 
-0.5 1:-0.946055 2:-0.970037 3:-0.952159 4:-0.925562 5:-0.959279 6:0.740179 7:-0.962239 8:-0.997503 9:-1 10:-1 11:-0.898472 12:0.737444 13:-0.998651 14:-0.945069 15:-0.922924 16:-0.960674 17:-0.796919 18:-0.994549 
0.5 1:-0.962239 2:-0.997503 3:-1 4:-1 5:-0.898472 6:0.73832 7:-0.998651 8:-0.945069 9:-0.922924 10:-0.960674 11:-0.796919 12:-0.994549 13:-0.932569 14:-0.970037 15:-0.962791 16:-0.960674 17:-0.921687 18:-0.961059 
-0.5 1:-0.932569 2:-0.970037 3:-0.962791 4:-0.960674 5:-0.921687 6:-0.954516 7:-0.962239 8:-0.947566 9:-0.941528 10:-0.929775 11:-0.849582 12:-0.496593 13:-0.959541 14:-0.975031 15:-0.937542 16:-0.938202 17:-0.942446 18:-0.210169 
-0.5 1:-0.962239 2:-0.947566 3:-0.941528 4:-0.929775 5:-0.849582 6:-0.4916 7:-0.959541 8:-0.975031 9:-0.937542 10:-0.938202 11:-0.942446 12:-0.210169 13:-0.958193 14:-0.970037 15:-0.936213 16:-0.928371 17:-0.96073 18:0.247811 
0.5 1:-0.959541 2:-0.975031 3:-0.937542 4:-0.938202 5:-0.942446 6:-0.206131 7:-0.958193 8:-0.970037 9:-0.936213 10:-0.928371 11:-0.96073 12:0.247811 13:-0.954147 14:-0.978777 15:-0.962791 16:-0.935393 17:-0.944707 18:0.546334 
-0.5 1:-0.958193 2:-0.970037 3:-0.936213 4:-0.928371 5:-0.96073 6:0.25032 7:-0.954147 8:-0.978777 9:-0.962791 10:-0.935393 11:-0.944707 12:0.546334 13:-0.973028 14:-0.97628 15:-0.948173 16:-0.933989 17:-0.939915 18:0.583446 
-0.5 1:-0.954147 2:-0.978777 3:-0.962791 4:-0.935393 5:-0.944707 6:0.547847 7:-0.973028 8:-0.97628 9:-0.948173 10:-0.933989 11:-0.939915 12:0.583446 13:-0.962239 14:-0.986267 15:-0.949502 16:-0.929775 17:-0.966425 18:0.464113 
0.5 1:-0.973028 2:-0.97628 3:-0.948173 4:-0.933989 5:-0.939915 6:0.584835 7:-0.962239 8:-0.986267 9:-0.949502 10:-0.929775 11:-0.966425 12:0.464113 13:-0.959541 14:-0.981273 15:-0.954817 16:-0.928371 17:-0.975585 18:0.689074 
-0.5 1:-0.962239 2:-0.986267 3:-0.949502 4:-0.929775 5:-0.966425 6:0.4659 7:-0.959541 8:-0.981273 9:-0.954817 10:-0.928371 11:-0.975585 12:0.689074 13:-0.967633 14:-0.977528 15:-0.948173 16:-0.966292 17:-0.889272 18:0.632353 
0.5 1:-0.959541 2:-0.981273 3:-0.954817 4:-0.928371 5:-0.975585 6:0.690111 7:-0.967633 8:-0.977528 9:-0.948173 10:-0.966292 11:-0.889272 12:0.632353 13:-0.959541 14:-0.982522 15:-0.986711 16:-0.963483 17:-0.907523 18:0.630632 
0.5 1:-0.967633 2:-0.977528 3:-0.948173 4:-0.966292 5:-0.889272 6:0.633579 7:-0.959541 8:-0.982522 9:-0.986711 10:-0.963483 11:-0.907523 12:0.630632 13:-0.993257 14:-1 15:-0.972093 16:-0.95927 17:-0.968583 18:-0.995156 
0.5 1:-0.959541 2:-0.982522 3:-0.986711 4:-0.963483 5:-0.907523 6:0.631864 7:-0.993257 8:-1 9:-0.972093 10:-0.95927 11:-0.968583 12:-0.995156 13:-0.979771 14:-0.972534 15:-0.945515 16:-0.957865 17:-0.890912 18:-0.961475 
-0.5 1:-0.993257 2:-1 3:-0.972093 4:-0.95927 5:-0.968583 6:-0.988499 7:-0.979771 8:-0.972534 9:-0.945515 10:-0.957865 11:-0.890912 12:-0.961475 13:-0.967633 14:-0.833958 15:-0.837874 16:-0.93118 17:-0.447631 18:-0.514585 
0.5 1:-0.979771 2:-0.972534 3:-0.945515 4:-0.957865 5:-0.890912 6:-0.954931 7:-0.967633 8:-0.833958 9:-0.837874 10:-0.93118 11:-0.447631 12:-0.514585 13:-0.885367 14:-0.913858 15:-0.918937 16:-0.889045 17:-0.770948 18:-0.249178 
-0.5 1:-0.967633 2:-0.833958 3:-0.837874 4:-0.93118 5:-0.447631 6:-0.509532 7:-0.885367 8:-0.913858 9:-0.918937 10:-0.889045 11:-0.770948 12:-0.249178 13:-0.91234 14:-0.932584 15:-0.916279 16:-0.889045 17:-0.876182 18:0.185916 
0.5 1:-0.885367 2:-0.913858 3:-0.918937 4:-0.889045 5:-0.770948 6:-0.24501 7:-0.91234 8:-0.932584 9:-0.916279 10:-0.889045 11:-0.876182 12:0.185916 13:-0.927175 14:-0.946317 15:-0.925581 16:-0.910112 17:-0.90835 18:0.470062 
0.5 1:-0.91234 2:-0.932584 3:-0.916279 4:-0.889045 5:-0.876182 6:0.188632 7:-0.927175 8:-0.946317 9:-0.925581 10:-0.910112 11:-0.90835 12:0.470062 13:-0.93122 14:-0.921348 15:-0.889701 16:-0.898876 17:-0.884781 18:0.50969 
0.5 1:-0.927175 2:-0.946317 3:-0.925581 4:-0.910112 5:-0.90835 6:0.47183 7:-0.93122 8:-0.921348 9:-0.889701 10:-0.898876 11:-0.884781 12:0.50969 13:-0.886716 14:-0.886392 15:-0.884385 16:-0.875 17:-0.839597 18:0.398333 
0.5 1:-0.93122 2:-0.921348 3:-0.889701 4:-0.898876 5:-0.884781 6:0.511326 7:-0.886716 8:-0.886392 9:-0.884385 10:-0.875 11:-0.839597 12:0.398333 13:-0.892111 14:-0.922597 15:-0.880399 16:-0.877809 17:-0.923413 18:0.614409 
-0.5 1:-0.886716 2:-0.886392 3:-0.884385 4:-0.875 5:-0.839597 6:0.400341 7:-0.892111 8:-0.922597 9:-0.880399 10:-0.877809 11:-0.923413 12:0.614409 13:-0.878624 14:-0.881398 15:-0.86711 16:-0.839888 17:-0.86418 18:0.562912 
-0.5 1:-0.892111 2:-0.922597 3:-0.880399 4:-0.877809 5:-0.923413 6:0.615696 7:-0.878624 8:-0.881398 9:-0.86711 10:-0.839888 11:-0.86418 12:0.562912 13:-0.875927 14:-0.905119 15:-0.895017 16:-0.866573 17:-0.932611 18:0.561104 
0.5 1:-0.875927 2:-0.905119 3:-0.895017 4:-0.866573 5:-0.932611 6:0.562569 7:-0.9029 8:-0.937578 9:-0.921595 10:-0.894663 11:-0.95622 12:-0.992504 13:-0.916386 14:-0.955056 15:-0.917608 16:-0.904494 17:-0.971032 18:-0.960107 
0.5 1:-0.9029 2:-0.937578 3:-0.921595 4:-0.894663 5:-0.95622 6:-0.985856 7:-0.916386 8:-0.955056 9:-0.917608 10:-0.904494 11:-0.971032 12:-0.960107 13:-0.92178 14:-0.862672 15:-0.887043 16:-0.883427 17:-0.747393 18:-0.530476 
-0.5 1:-0.916386 2:-0.955056 3:-0.917608 4:-0.904494 5:-0.971032 6:-0.953567 7:-0.92178 8:-0.862672 9:-0.887043 10:-0.883427 11:-0.747393 12:-0.530476 13:-0.892111 14:-0.851436 15:-0.833887 16:-0.865169 17:-0.540073 18:-0.272753 
0.5 1:-0.92178 2:-0.862672 3:-0.887043 4:-0.883427 5:-0.747393 6:-0.52537 7:-0.892111 8:-0.851436 9:-0.833887 10:-0.865169 11:-0.540073 12:-0.272753 13:-0.850303 14:-0.857678 15:-0.833887 16:-0.820225 17:-0.766093 18:0.145064 
0.5 1:-0.892111 2:-0.851436 3:-0.833887 4:-0.865169 5:-0.540073 6:-0.268506 7:-0.850303 8:-0.857678 9:-0.833887 10:-0.820225 11:-0.766093 12:0.145064 13:-0.823331 14:-0.82397 15:-0.790033 16:-0.807584 17:-0.674082 18:0.421071 
-0.5 1:-0.850303 2:-0.857678 3:-0.833887 4:-0.820225 5:-0.766093 6:0.147916 7:-0.823331 8:-0.82397 9:-0.790033 10:-0.807584 11:-0.674082 12:0.421071 13:-0.796359 14:-0.797753 15:-0.756811 16:-0.772472 17:-0.63448 18:0.461896 
-0.5 1:-0.823331 2:-0.82397 3:-0.790033 4:-0.807584 5:-0.674082 6:0.423002 7:-0.796359 8:-0.797753 9:-0.756811 10:-0.772472 11:-0.63448 12:0.461896 13:-0.772084 14:-0.801498 15:-0.811296 16:-0.786517 17:-0.822055 18:0.352862 
-0.5 1:-0.796359 2:-0.797753 3:-0.756811 4:-0.772472 5:-0.63448 6:0.463691 7:-0.772084 8:-0.801498 9:-0.811296 10:-0.786517 11:-0.822055 12:0.352862 13:-0.809845 14:-0.837703 15:-0.812625 16:-0.797753 17:-0.902817 18:0.561573 
-0.5 1:-0.772084 2:-0.801498 3:-0.811296 4:-0.786517 5:-0.822055 6:0.355021 7:-0.809845 8:-0.837703 9:-0.812625 10:-0.797753 11:-0.902817 12:0.561573 13:-0.782873 14:-0.831461 15:-0.821927 16:-0.79073 17:-0.921032 18:0.512488 
0.5 1:-0.809845 2:-0.837703 3:-0.812625 4:-0.797753 5:-0.902817 6:0.563036 7:-0.782873 8:-0.831461 9:-0.821927 10:-0.79073 11:-0.921032 12:0.512488 13:-0.836817 14:-0.878901 15:-0.851163 16:-0.83427 17:-0.914471 18:0.510202 
-0.5 1:-0.782873 2:-0.831461 3:-0.821927 4:-0.79073 5:-0.921032 6:0.514114 7:-0.836817 8:-0.878901 9:-0.851163 10:-0.83427 11:-0.914471 12:0.510202 13:-0.867835 14:-0.812734 15:-0.780731 16:-0.823034 17:-0.714405 18:-0.983555 
0.5 1:-0.836817 2:-0.878901 3:-0.851163 4:-0.83427 5:-0.914471 6:0.511836 7:-0.867835 8:-0.812734 9:-0.780731 10:-0.823034 11:-0.714405 12:-0.983555 13:-0.78557 14:-0.820225 15:-0.801993 16:-0.782303 17:-0.805841 18:-0.953477 
0.5 1:-0.867835 2:-0.812734 3:-0.780731 4:-0.823034 5:-0.714405 6:-0.976937 7:-0.78557 8:-0.820225 9:-0.801993 10:-0.782303 11:-0.805841 12:-0.953477 13:-0.811194 14:-0.747815 15:-0.723588 16:-0.764045 17:-0.479751 18:-0.53506 
0.5 1:-0.78557 2:-0.820225 3:-0.801993 4:-0.782303 5:-0.805841 6:-0.946959 7:-0.811194 8:-0.747815 9:-0.723588 10:-0.764045 11:-0.479751 12:-0.53506 13:-0.712744 14:-0.594257 15:-0.6 16:-0.661517 17:-0.165819 18:-0.280239 
-0.5 1:-0.811194 2:-0.747815 3:-0.723588 4:-0.764045 5:-0.479751 6:-0.529939 7:-0.712744 8:-0.594257 9:-0.6 10:-0.661517 11:-0.165819 12:-0.280239 13:-0.603506 14:-0.546816 15:-0.577409 16:-0.577247 17:-0.229938 18:0.124809 
-0.5 1:-0.712744 2:-0.594257 3:-0.6 4:-0.661517 5:-0.165819 6:-0.275968 7:-0.603506 8:-0.546816 9:-0.577409 10:-0.577247 11:-0.229938 12:0.124809 13:-0.588672 14:-0.617978 15:-0.593355 16:-0.573034 17:-0.605776 18:0.391381 
0.5 1:-0.603506 2:-0.546816 3:-0.577409 4:-0.577247 5:-0.229938 6:0.127729 7:-0.588672 8:-0.617978 9:-0.593355 10:-0.573034 11:-0.605776 12:0.391381 13:-0.626433 14:-0.636704 15:-0.610631 16:-0.578652 17:-0.728209 18:0.430602 
-0.5 1:-0.588672 2:-0.617978 3:-0.593355 4:-0.573034 5:-0.605776 6:0.393411 7:-0.626433 8:-0.636704 9:-0.610631 10:-0.578652 11:-0.728209 12:0.430602 13:-0.61969 14:-0.614232 15:-0.546844 16:-0.564607 17:-0.609794 18:0.328308 
0.5 1:-0.626433 2:-0.636704 3:-0.610631 4:-0.578652 5:-0.728209 6:0.432501 7:-0.61969 8:-0.614232 9:-0.546844 10:-0.564607 11:-0.609794 12:0.328308 13:-0.560351 14:-0.588015 15:-0.589369 16:-0.539326 17:-0.618209 18:0.529055 
0.5 1:-0.61969 2:-0.614232 3:-0.546844 4:-0.564607 5:-0.609794 6:0.330549 7:-0.560351 8:-0.588015 9:-0.589369 10:-0.539326 11:-0.618209 12:0.529055 13:-0.585974 14:-0.428215 15:-0.387375 16:-0.564607 17:-0.28786 18:0.49052 
0.5 1:-0.560351 2:-0.588015 3:-0.589369 4:-0.539326 5:-0.618209 6:0.530626 7:-0.585974 8:-0.428215 9:-0.387375 10:-0.564607 11:-0.28786 12:0.49052 13:-0.305462 14:-0.292135 15:-0.339535 16:-0.30618 17:-0.178273 18:0.490629 
-0.5 1:-0.585974 2:-0.428215 3:-0.387375 4:-0.564607 5:-0.28786 6:0.49222 7:-0.305462 8:-0.292135 9:-0.339535 10:-0.30618 11:-0.178273 12:0.490629 13:-0.354012 14:-0.320849 15:-0.254485 16:-0.351124 17:-0.374408 18:-0.954758 
-0.5 1:-0.305462 2:-0.292135 3:-0.339535 4:-0.30618 5:-0.178273 6:0.492328 7:-0.354012 8:-0.320849 9:-0.254485 10:-0.351124 11:-0.374408 12:-0.954758 13:-0.254214 14:-0.297129 15:-0.330233 16:-0.266854 17:-0.53165 18:-0.92905 
0.5 1:-0.354012 2:-0.320849 3:-0.254485 4:-0.351124 5:-0.374408 6:-0.948236 7:-0.254214 8:-0.297129 9:-0.330233 10:-0.266854 11:-0.53165 12:-0.92905 13:-0.34592 14:-0.394507 15:-0.374086 16:-0.320225 17:-0.676737 18:-0.524861 
-0.5 1:-0.254214 2:-0.297129 3:-0.330233 4:-0.266854 5:-0.53165 6:-0.922614 7:-0.34592 8:-0.394507 9:-0.374086 10:-0.320225 11:-0.676737 12:-0.524861 13:-0.321645 14:-0.342072 15:-0.286379 16:-0.297753 17:-0.681239 18:-0.274024 
-0.5 1:-0.34592 2:-0.394507 3:-0.374086 4:-0.320225 5:-0.676737 6:-0.519774 7:-0.321645 8:-0.342072 9:-0.286379 10:-0.297753 11:-0.681239 12:-0.274024 13:-0.27849 14:-0.317104 15:-0.298339 16:-0.247191 17:-0.704789 18:0.119065 
-0.5 1:-0.321645 2:-0.342072 3:-0.286379 4:-0.297753 5:-0.681239 6:-0.269773 7:-0.27849 8:-0.317104 9:-0.298339 10:-0.247191 11:-0.704789 12:0.119065 13:-0.300067 14:-0.382022 15:-0.315615 16:-0.316011 17:-0.731953 18:0.377652 
0.5 1:-0.27849 2:-0.317104 3:-0.298339 4:-0.247191 5:-0.704789 6:0.122004 7:-0.300067 8:-0.382022 9:-0.315615 10:-0.316011 11:-0.731953 12:0.377652 13:-0.322994 14:-0.394507 15:-0.404651 16:-0.356742 17:-0.77697 18:0.412635 
-0.5 1:-0.300067 2:-0.382022 3:-0.315615 4:-0.316011 5:-0.731953 6:0.379728 7:-0.322994 8:-0.394507 9:-0.404651 10:-0.356742 11:-0.77697 12:0.412635 13:-0.410654 14:-0.445693 15:-0.39402 16:-0.352528 17:-0.817485 18:0.313743 
-0.5 1:-0.322994 2:-0.394507 3:-0.404651 4:-0.356742 5:-0.77697 6:0.414594 7:-0.410654 8:-0.445693 9:-0.39402 10:-0.352528 11:-0.817485 12:0.313743 13:-0.390425 14:-0.446941 15:-0.392691 16:-0.349719 17:-0.846948 18:0.50938 
-0.5 1:-0.410654 2:-0.445693 3:-0.39402 4:-0.352528 5:-0.817485 6:0.316033 7:-0.390425 8:-0.446941 9:-0.392691 10:-0.349719 11:-0.846948 12:0.50938 13:-0.393122 14:-0.460674 15:-0.419269 16:-0.393258 17:-0.746511 18:0.471157 
-0.5 1:-0.390425 2:-0.446941 3:-0.392691 4:-0.349719 5:-0.846948 6:0.511017 7:-0.393122 8:-0.460674 9:-0.419269 10:-0.393258 11:-0.746511 12:0.471157 13:-0.436278 14:-0.469413 15:-0.41794 16:-0.373596 17:-0.84538 18:0.471561 
-0.5 1:-0.393122 2:-0.460674 3:-0.419269 4:-0.393258 5:-0.746511 6:0.472921 7:-0.436278 8:-0.469413 9:-0.41794 10:-0.373596 11:-0.84538 12:0.471561 13:-0.4147 14:-0.468165 15:-0.47907 16:-0.439607 17:-0.764262 18:-0.938673 
0.5 1:-0.436278 2:-0.469413 3:-0.41794 4:-0.373596 5:-0.84538 6:0.473324 7:-0.4147 8:-0.468165 9:-0.47907 10:-0.439607 11:-0.764262 12:-0.938673 13:-0.484828 14:-0.543071 15:-0.488372 16:-0.450843 17:-0.85755 18:-0.914143 
-0.5 1:-0.4147 2:-0.468165 3:-0.47907 4:-0.439607 5:-0.764262 6:-0.932205 7:-0.484828 8:-0.543071 9:-0.488372 10:-0.450843 11:-0.85755 12:-0.914143 13:-0.49292 14:-0.466916 15:-0.437874 16:-0.490169 17:-0.655018 18:-0.518511 
-0.5 1:-0.484828 2:-0.543071 3:-0.488372 4:-0.450843 5:-0.85755 6:-0.907757 7:-0.49292 8:-0.466916 9:-0.437874 10:-0.490169 11:-0.655018 12:-0.518511 13:-0.476736 14:-0.493134 15:-0.52691 16:-0.481742 17:-0.838304 18:-0.276966 
-0.5 1:-0.49292 2:-0.466916 3:-0.437874 4:-0.490169 5:-0.655018 6:-0.513445 7:-0.476736 8:-0.493134 9:-0.52691 10:-0.481742 11:-0.838304 12:-0.276966 13:-0.545516 14:-0.543071 15:-0.532226 16:-0.549157 17:-0.771662 18:0.106393 
0.5 1:-0.476736 2:-0.493134 3:-0.52691 4:-0.481742 5:-0.838304 6:-0.272705 7:-0.545516 8:-0.543071 9:-0.532226 10:-0.549157 11:-0.771662 12:0.106393 13:-0.549562 14:-0.588015 15:-0.578738 16:-0.533708 17:-0.897684 18:0.357361 
0.5 1:-0.545516 2:-0.543071 3:-0.532226 4:-0.549157 5:-0.771662 6:0.109374 7:-0.549562 8:-0.588015 9:-0.578738 10:-0.533708 11:-0.897684 12:0.357361 13:-0.577883 14:-0.573034 15:-0.524252 16:-0.550562 17:-0.853385 18:0.393535 
0.5 1:-0.549562 2:-0.588015 3:-0.578738 4:-0.533708 5:-0.897684 6:0.359506 7:-0.577883 8:-0.573034 9:-0.524252 10:-0.550562 11:-0.853385 12:0.393535 13:-0.540121 14:-0.58427 15:-0.518937 16:-0.507022 17:-0.857984 18:0.297368 
0.5 1:-0.577883 2:-0.573034 3:-0.524252 4:-0.550562 5:-0.853385 6:0.395559 7:-0.540121 8:-0.58427 9:-0.518937 10:-0.507022 11:-0.857984 12:0.297368 13:-0.518543 14:-0.546816 15:-0.481728 16:-0.480337 17:-0.80055 18:0.489834 
-0.3178329184272008 1:-0.540121 2:-0.58427 3:-0.518937 4:-0.507022 5:-0.857984 6:0.299712 7:-0.518543 8:-0.546816 9:-0.481728 10:-0.480337 11:-0.80055 12:0.489834 13:-0.482131 14:-0.50437 15:-0.471096 16:-0.432584 17:-0.724932 18:0.45305 
0.5 1:-0.518543 2:-0.546816 3:-0.481728 4:-0.480337 5:-0.80055 6:0.491536 7:-0.482131 8:-0.50437 9:-0.471096 10:-0.432584 11:-0.724932 12:0.45305 13:-0.468645 14:-0.535581 15:-0.469767 16:-0.436798 17:-0.84991 18:0.453693 
-0.5 1:-0.482131 2:-0.50437 3:-0.471096 4:-0.432584 5:-0.724932 6:0.454875 7:-0.468645 8:-0.535581 9:-0.469767 10:-0.436798 11:-0.84991 12:0.453693 13:-0.465947 14:-0.505618 15:-0.447176 16:-0.428371 17:-0.781591 18:-0.923953 
-0.5 1:-0.465947 2:-0.505618 3:-0.447176 4:-0.428371 5:-0.781591 6:-0.917534 7:-0.448415 8:-0.505618 9:-0.468439 10:-0.418539 11:-0.867248 12:-0.900781 13:-0.469993 14:-0.481898 15:-0.45515 16:-0.408708 17:-0.744507 18:-0.513589 
-0.5 1:-0.448415 2:-0.505618 3:-0.468439 4:-0.418539 5:-0.867248 6:-0.894439 7:-0.469993 8:-0.481898 9:-0.45515 10:-0.408708 11:-0.744507 12:-0.513589 13:-0.456507 14:-0.518102 15:-0.509635 16:-0.457865 17:-0.769911 18:-0.278976 
0.5 1:-0.469993 2:-0.481898 3:-0.45515 4:-0.408708 5:-0.744507 6:-0.50854 7:-0.456507 8:-0.518102 9:-0.509635 10:-0.457865 11:-0.769911 12:-0.278976 13:-0.522589 14:-0.579276 15:-0.508306 16:-0.498596 17:-0.850639 18:0.0961989 
-0.5 1:-0.456507 2:-0.518102 3:-0.509635 4:-0.457865 5:-0.769911 6:-0.274709 7:-0.522589 8:-0.579276 9:-0.508306 10:-0.498596 11:-0.850639 12:0.0961989 13:-0.510452 14:-0.55181 15:-0.493688 16:-0.495787 17:-0.807075 18:0.342364 
0.5 1:-0.522589 2:-0.579276 3:-0.508306 4:-0.498596 5:-0.850639 6:0.0992143 7:-0.510452 8:-0.55181 9:-0.493688 10:-0.495787 11:-0.807075 12:0.342364 13:-0.496966 14:-0.561798 15:-0.585382 16:-0.542135 17:-0.801064 18:0.375282 
-0.5 1:-0.510452 2:-0.55181 3:-0.493688 4:-0.495787 5:-0.807075 6:0.344558 7:-0.496966 8:-0.561798 9:-0.585382 10:-0.542135 11:-0.801064 12:0.375282 13:-0.585974 14:-0.621723 15:-0.569435 16:-0.547753 17:-0.903107 18:0.281764 
0.5 1:-0.496966 2:-0.561798 3:-0.585382 4:-0.542135 5:-0.801064 6:0.377366 7:-0.585974 8:-0.621723 9:-0.569435 10:-0.547753 11:-0.903107 12:0.281764 13:-0.573837 14:-0.625468 15:-0.573422 16:-0.543539 17:-0.902824 18:0.470309 
-0.5 1:-0.585974 2:-0.621723 3:-0.569435 4:-0.547753 5:-0.903107 6:0.28416 7:-0.573837 8:-0.625468 9:-0.573422 10:-0.543539 11:-0.902824 12:0.470309 13:-0.577883 14:-0.62422 15:-0.560133 16:-0.533708 17:-0.916619 18:0.434848 
-0.5 1:-0.573837 2:-0.625468 3:-0.573422 4:-0.543539 5:-0.902824 6:0.472077 7:-0.577883 8:-0.62422 9:-0.560133 10:-0.533708 11:-0.916619 12:0.434848 13:-0.565745 14:-0.630462 15:-0.642525 16:-0.602528 17:-0.88282 18:0.433375 
0.5 1:-0.577883 2:-0.62422 3:-0.560133 4:-0.533708 5:-0.916619 6:0.436734 7:-0.565745 8:-0.630462 9:-0.642525 10:-0.602528 11:-0.88282 12:0.433375 13:-0.653405 14:-0.692884 15:-0.641196 16:-0.610955 17:-0.880966 18:-0.916478 
-0.5 1:-0.653405 2:-0.692884 3:-0.641196 4:-0.610955 5:-0.880966 6:-0.910084 7:-0.649359 8:-0.645443 9:-0.586711 10:-0.616573 11:-0.806137 12:-0.892356 13:-0.588672 14:-0.60799 15:-0.573422 16:-0.547753 17:-0.802508 18:-0.512482 
-0.5 1:-0.649359 2:-0.645443 3:-0.586711 4:-0.616573 5:-0.806137 6:-0.886043 7:-0.588672 8:-0.60799 9:-0.573422 10:-0.547753 11:-0.802508 12:-0.512482 13:-0.584626 14:-0.645443 15:-0.593355 16:-0.560393 17:-0.929787 18:-0.282967 
0.5 1:-0.588672 2:-0.60799 3:-0.573422 4:-0.547753 5:-0.802508 6:-0.507435 7:-0.584626 8:-0.645443 9:-0.593355 10:-0.560393 11:-0.929787 12:-0.282967 13:-0.591369 14:-0.650437 15:-0.615947 16:-0.574438 17:-0.864 18:0.0844351 
0.5 1:-0.584626 2:-0.645443 3:-0.593355 4:-0.560393 5:-0.929787 6:-0.278686 7:-0.591369 8:-0.650437 9:-0.615947 10:-0.574438 11:-0.864 12:0.0844351 13:-0.606204 14:-0.64794 15:-0.6 16:-0.563202 17:-0.913245 18:0.32644 
0.5 1:-0.591369 2:-0.650437 3:-0.615947 4:-0.574438 5:-0.864 6:0.0874897 7:-0.606204 8:-0.64794 9:-0.6 10:-0.563202 11:-0.913245 12:0.32644 13:-0.603506 14:-0.637953 15:-0.577409 16:-0.549157 17:-0.907968 18:0.359473 
-0.5 1:-0.606204 2:-0.64794 3:-0.6 4:-0.563202 5:-0.913245 6:0.328688 7:-0.603506 8:-0.637953 9:-0.577409 10:-0.549157 11:-0.907968 12:0.359473 13:-0.581929 14:-0.586767 15:-0.518937 16:-0.539326 17:-0.705918 18:0.269353 
0.5 1:-0.603506 2:-0.637953 3:-0.577409 4:-0.549157 5:-0.907968 6:0.36161 7:-0.581929 8:-0.586767 9:-0.518937 10:-0.539326 11:-0.705918 12:0.269353 13:-0.530681 14:-0.598002 15:-0.570764 16:-0.52809 17:-0.832066 18:0.453203 
-0.5 1:-0.581929 2:-0.586767 3:-0.518937 4:-0.539326 5:-0.705918 6:0.271791 7:-0.530681 8:-0.598002 9:-0.570764 10:-0.52809 11:-0.832066 12:0.453203 13:-0.549562 14:-0.561798 15:-0.489701 16:-0.491573 17:-0.583662 18:0.420593 
-0.5 1:-0.530681 2:-0.598002 3:-0.570764 4:-0.52809 5:-0.832066 6:0.455027 7:-0.549562 8:-0.561798 9:-0.489701 10:-0.491573 11:-0.583662 12:0.420593 13:-0.486177 14:-0.549313 15:-0.512292 16:-0.477528 17:-0.801881 18:0.418712 
-0.5 1:-0.549562 2:-0.561798 3:-0.489701 4:-0.491573 5:-0.583662 6:0.422526 7:-0.486177 8:-0.549313 9:-0.512292 10:-0.477528 11:-0.801881 12:0.418712 13:-0.5118 14:-0.566792 15:-0.529568 16:-0.509831 17:-0.881121 18:-0.907115 
0.3178329184272008 1:-0.486177 2:-0.549313 3:-0.512292 4:-0.477528 5:-0.801881 6:0.420651 7:-0.5118 8:-0.566792 9:-0.529568 10:-0.509831 11:-0.881121 12:-0.907115 13:-0.557653 14:-0.610487 15:-0.598671 16:-0.550562 17:-0.852996 18:-0.885203 
-0.5 1:-0.5118 2:-0.566792 3:-0.529568 4:-0.509831 5:-0.881121 6:-0.900753 7:-0.557653 8:-0.610487 9:-0.598671 10:-0.550562 11:-0.852996 12:-0.885203 13:-0.612947 14:-0.604245 15:-0.584053 16:-0.591292 17:-0.854599 18:-0.51176 
-0.5 1:-0.557653 2:-0.610487 3:-0.598671 4:-0.550562 5:-0.852996 6:-0.878913 7:-0.612947 8:-0.604245 9:-0.584053 10:-0.591292 11:-0.854599 12:-0.51176 13:-0.58058 14:-0.640449 15:-0.593355 16:-0.553371 17:-0.951252 18:-0.286502 
-0.5 1:-0.612947 2:-0.604245 3:-0.584053 4:-0.591292 5:-0.854599 6:-0.506716 7:-0.58058 8:-0.640449 9:-0.593355 10:-0.553371 11:-0.951252 12:-0.286502 13:-0.614295 14:-0.675406 15:-0.651827 16:-0.606742 17:-0.903694 18:0.0731437 
-0.5 1:-0.58058 2:-0.640449 3:-0.593355 4:-0.553371 5:-0.951252 6:-0.28221 7:-0.614295 8:-0.675406 9:-0.651827 10:-0.606742 11:-0.903694 12:0.0731437 13:-0.657451 14:-0.695381 15:-0.689037 16:-0.644663 17:-0.927616 18:0.310192 
0.5 1:-0.614295 2:-0.675406 3:-0.651827 4:-0.606742 5:-0.903694 6:0.076236 7:-0.657451 8:-0.695381 9:-0.689037 10:-0.644663 11:-0.927616 12:0.310192 13:-0.695212 14:-0.736579 15:-0.759468 16:-0.745787 17:-0.866172 18:0.341145 
-0.5 1:-0.657451 2:-0.695381 3:-0.689037 4:-0.644663 5:-0.927616 6:0.312494 7:-0.695212 8:-0.736579 9:-0.759468 10:-0.745787 11:-0.866172 12:0.341145 13:-0.7559 14:-0.780275 15:-0.746179 16:-0.719101 17:-0.933879 18:0.253017 
0.5 1:-0.695212 2:-0.736579 3:-0.759468 4:-0.745787 5:-0.866172 6:0.343343 7:-0.7559 8:-0.780275 9:-0.746179 10:-0.719101 11:-0.933879 12:0.253017 13:-0.774781 14:-0.82397 15:-0.780731 16:-0.769663 17:-0.956787 18:0.433117 
0.5 1:-0.7559 2:-0.780275 3:-0.746179 4:-0.719101 5:-0.933879 6:0.255509 7:-0.774781 8:-0.82397 9:-0.780731 10:-0.769663 11:-0.956787 12:0.433117 13:-0.781524 14:-0.776529 15:-0.722259 16:-0.733146 17:-0.907304 18:0.402557 
0.5 1:-0.774781 2:-0.82397 3:-0.780731 4:-0.769663 5:-0.956787 6:0.435008 7:-0.781524 8:-0.776529 9:-0.722259 10:-0.733146 11:-0.907304 12:0.402557 13:-0.719488 14:-0.736579 15:-0.695681 16:-0.679775 17:-0.861072 18:0.401459 
0.5 1:-0.781524 2:-0.776529 3:-0.722259 4:-0.733146 5:-0.907304 6:0.40455 7:-0.719488 8:-0.736579 9:-0.695681 10:-0.679775 11:-0.861072 12:0.401459 13:-0.704653 14:-0.722846 15:-0.691694 16:-0.674157 17:-0.869921 18:-0.902402 
-0.5 1:-0.719488 2:-0.736579 3:-0.695681 4:-0.679775 5:-0.861072 6:0.403456 7:-0.704653 8:-0.722846 9:-0.691694 10:-0.674157 11:-0.869921 12:-0.902402 13:-0.700607 14:-0.622971 15:-0.6 16:-0.668539 17:-0.588111 18:-0.878836 
-0.5 1:-0.704653 2:-0.722846 3:-0.691694 4:-0.674157 5:-0.869921 6:-0.896055 7:-0.700607 8:-0.622971 9:-0.6 10:-0.668539 11:-0.588111 12:-0.878836 13:-0.583277 14:-0.630462 15:-0.605316 16:-0.574438 17:-0.737226 18:-0.511585 
-0.5 1:-0.700607 2:-0.622971 3:-0.6 4:-0.668539 5:-0.588111 6:-0.872567 7:-0.583277 8:-0.630462 9:-0.605316 10:-0.574438 11:-0.737226 12:-0.511585 13:-0.626433 14:-0.654182 15:-0.621262 16:-0.585674 17:-0.849814 18:-0.290283 
-0.5 1:-0.583277 2:-0.630462 3:-0.605316 4:-0.574438 5:-0.737226 6:-0.506542 7:-0.626433 8:-0.654182 9:-0.621262 10:-0.585674 11:-0.849814 12:-0.290283 13:-0.630479 14:-0.667915 15:-0.655814 16:-0.61236 17:-0.884905 18:0.0629303 
-0.5 1:-0.626433 2:-0.654182 3:-0.621262 4:-0.585674 5:-0.849814 6:-0.285978 7:-0.630479 8:-0.667915 9:-0.655814 10:-0.61236 11:-0.884905 12:0.0629303 13:-0.670937 14:-0.70412 15:-0.669103 16:-0.644663 17:-0.905919 18:0.296039 
0.5 1:-0.630479 2:-0.667915 3:-0.655814 4:-0.61236 5:-0.884905 6:0.0660567 7:-0.670937 8:-0.70412 9:-0.669103 10:-0.644663 11:-0.905919 12:0.296039 13:-0.673635 14:-0.697878 15:-0.698339 16:-0.660112 17:-0.874799 18:0.325991 
-0.5 1:-0.670937 2:-0.70412 3:-0.669103 4:-0.644663 5:-0.905919 6:0.298387 7:-0.673635 8:-0.697878 9:-0.698339 10:-0.660112 11:-0.874799 12:0.325991 13:-0.701955 14:-0.699126 15:-0.653156 16:-0.669944 17:-0.817918 18:0.240309 
0.5 1:-0.673635 2:-0.697878 3:-0.698339 4:-0.660112 5:-0.874799 6:0.328239 7:-0.701955 8:-0.699126 9:-0.653156 10:-0.669944 11:-0.817918 12:0.240309 13:-0.660148 14:-0.677903 15:-0.681063 16:-0.647472 17:-0.71236 18:0.417146 
0.5 1:-0.701955 2:-0.699126 3:-0.653156 4:-0.669944 5:-0.817918 6:0.242844 7:-0.660148 8:-0.677903 9:-0.681063 10:-0.647472 11:-0.71236 12:0.417146 13:-0.699258 14:-0.686642 15:-0.626578 16:-0.654494 17:-0.817943 18:0.388317 
-0.5 1:-0.660148 2:-0.677903 3:-0.681063 4:-0.647472 5:-0.71236 6:0.41909 7:-0.699258 8:-0.686642 9:-0.626578 10:-0.654494 11:-0.817943 12:0.388317 13:-0.618341 14:-0.556804 15:-0.499003 16:-0.59691 17:-0.14287 18:0.39 
-0.5 1:-0.699258 2:-0.686642 3:-0.626578 4:-0.654494 5:-0.817943 6:0.390358 7:-0.618341 8:-0.556804 9:-0.499003 10:-0.59691 11:-0.14287 12:0.39 13:-0.544167 14:-0.58427 15:-0.554817 16:-0.535112 17:-0.60949 18:-0.895321 
-0.5 1:-0.618341 2:-0.556804 3:-0.499003 4:-0.59691 5:-0.14287 6:0.392035 7:-0.544167 8:-0.58427 9:-0.554817 10:-0.535112 11:-0.60949 12:-0.895321 13:-0.518543 14:-0.570537 15:-0.58804 16:-0.547753 17:-0.758499 18:-0.872841 
-0.5 1:-0.544167 2:-0.58427 3:-0.554817 4:-0.535112 5:-0.60949 6:-0.888998 7:-0.518543 8:-0.570537 9:-0.58804 10:-0.547753 11:-0.758499 12:-0.872841 13:-0.600809 14:-0.642946 15:-0.615947 16:-0.58427 17:-0.801663 18:-0.511643 
0.5 1:-0.518543 2:-0.570537 3:-0.58804 4:-0.547753 5:-0.758499 6:-0.866592 7:-0.600809 8:-0.642946 9:-0.615947 10:-0.58427 11:-0.801663 12:-0.511643 13:-0.630479 14:-0.672909 15:-0.639867 16:-0.603933 17:-0.858754 18:-0.294079 
0.5 1:-0.600809 2:-0.642946 3:-0.615947 4:-0.58427 5:-0.801663 6:-0.5066 7:-0.630479 8:-0.672909 9:-0.639867 10:-0.603933 11:-0.858754 12:-0.294079 13:-0.656102 14:-0.684145 15:-0.631894 16:-0.610955 17:-0.908218 18:0.0541659 
0.5 1:-0.630479 2:-0.672909 3:-0.639867 4:-0.603933 5:-0.858754 6:-0.289761 7:-0.656102 8:-0.684145 9:-0.631894 10:-0.610955 11:-0.908218 12:0.0541659 13:-0.634525 14:-0.661673 15:-0.598671 16:-0.595506 17:-0.843717 18:0.284621 
0.5 1:-0.656102 2:-0.684145 3:-0.631894 4:-0.610955 5:-0.908218 6:0.0573216 7:-0.634525 8:-0.661673 9:-0.598671 10:-0.595506 11:-0.843717 12:0.284621 13:-0.564396 14:-0.580524 15:-0.561462 16:-0.551966 17:-0.581592 18:0.31496 
-0.5 1:-0.634525 2:-0.661673 3:-0.598671 4:-0.595506 5:-0.843717 6:0.287008 7:-0.564396 8:-0.580524 9:-0.561462 10:-0.551966 11:-0.581592 12:0.31496 13:-0.58058 14:-0.548065 15:-0.496346 16:-0.535112 17:-0.478376 18:0.231859 
0.5 1:-0.564396 2:-0.580524 3:-0.561462 4:-0.551966 5:-0.581592 6:0.317245 7:-0.58058 8:-0.548065 9:-0.496346 10:-0.535112 11:-0.478376 12:0.231859 13:-0.506406 14:-0.56804 15:-0.532226 16:-0.5 17:-0.618904 18:0.405548 
-0.5 1:-0.58058 2:-0.548065 3:-0.496346 4:-0.535112 5:-0.478376 6:0.234422 7:-0.506406 8:-0.56804 9:-0.532226 10:-0.5 11:-0.618904 12:0.405548 13:-0.523938 14:-0.51186 15:-0.492359 16:-0.477528 17:-0.373126 18:0.377979 
-0.5 1:-0.506406 2:-0.56804 3:-0.532226 4:-0.5 5:-0.618904 6:0.407531 7:-0.523938 8:-0.51186 9:-0.492359 10:-0.477528 11:-0.373126 12:0.377979 13:-0.490223 14:-0.548065 15:-0.533555 16:-0.523876 17:-0.595952 18:0.378919 
0.5 1:-0.523938 2:-0.51186 3:-0.492359 4:-0.477528 5:-0.373126 6:0.380054 7:-0.490223 8:-0.548065 9:-0.533555 10:-0.523876 11:-0.595952 12:0.378919 13:-0.564396 14:-0.529338 15:-0.533555 16:-0.51264 17:-0.56189 18:-0.888474 
0.5 1:-0.490223 2:-0.548065 3:-0.533555 4:-0.523876 5:-0.595952 6:0.380991 7:-0.564396 8:-0.529338 9:-0.533555 10:-0.51264 11:-0.56189 12:-0.888474 13:-0.523938 14:-0.521848 15:-0.476412 16:-0.498596 17:-0.396016 18:-0.865268 
0.5 1:-0.564396 2:-0.529338 3:-0.533555 4:-0.51264 5:-0.56189 6:-0.882173 7:-0.523938 8:-0.521848 9:-0.476412 10:-0.498596 11:-0.396016 12:-0.865268 13:-0.478085 14:-0.264669 15:-0.201329 16:-0.442416 17:0.58823 18:-0.503892 
-0.5 1:-0.523938 2:-0.521848 3:-0.476412 4:-0.498596 5:-0.396016 6:-0.859045 7:-0.478085 8:-0.264669 9:-0.201329 10:-0.442416 11:0.58823 12:-0.503892 13:-0.194875 14:-0.212235 15:-0.168106 16:-0.183989 17:0.269132 18:-0.28872 
0.5 1:-0.478085 2:-0.264669 3:-0.201329 4:-0.442416 5:0.58823 6:-0.498875 7:-0.194875 8:-0.212235 9:-0.168106 10:-0.183989 11:0.269132 12:-0.28872 13:-0.188132 14:-0.27965 15:-0.319601 16:-0.366573 17:-0.0724823 18:0.0519699 
-0.5 1:-0.194875 2:-0.212235 3:-0.168106 4:-0.183989 5:0.269132 6:-0.28442 7:-0.188132 8:-0.27965 9:-0.319601 10:-0.366573 11:-0.0724823 12:0.0519699 13:-0.335131 14:-0.245943 15:-0.209302 16:-0.324438 17:-0.16875 18:0.281381 
0.5 1:-0.188132 2:-0.27965 3:-0.319601 4:-0.366573 5:-0.0724823 6:0.0551329 7:-0.335131 8:-0.245943 9:-0.209302 10:-0.324438 11:-0.16875 12:0.281381 13:-0.243425 14:-0.118602 15:-0.328904 16:-0.296348 17:0.162343 18:0.309145 
0.5 1:-0.335131 2:-0.245943 3:-0.209302 4:-0.324438 5:-0.16875 6:0.283778 7:-0.243425 8:-0.118602 9:-0.328904 10:-0.296348 11:0.162343 12:0.309145 13:-0.32704 14:-0.297129 15:-0.242525 16:-0.324438 17:-0.466167 18:0.228756 
0.5 1:-0.243425 2:-0.118602 3:-0.328904 4:-0.296348 5:0.162343 6:0.31145 7:-0.32704 8:-0.297129 9:-0.242525 10:-0.324438 11:-0.466167 12:0.228756 13:-0.240728 14:-0.186017 15:-0.193355 16:-0.210674 17:-0.420646 18:0.401069 
-0.5 1:-0.32704 2:-0.297129 3:-0.242525 4:-0.324438 5:-0.466167 6:0.231329 7:-0.240728 8:-0.186017 9:-0.193355 10:-0.210674 11:-0.420646 12:0.401069 13:0.00472016 14:0.019975 15:-0.0883721 16:-0.011236 17:0.0225383 18:0.375775 
-0.5 1:-0.240728 2:-0.186017 3:-0.193355 4:-0.210674 5:-0.420646 6:0.403067 7:0.00472016 8:0.019975 9:-0.0883721 10:-0.011236 11:0.0225383 12:0.375775 13:-0.127444 14:-0.212235 15:-0.161462 16:-0.130618 17:-0.535568 18:0.375412 
-0.5 1:0.00472016 2:0.019975 3:-0.0883721 4:-0.011236 5:0.0225383 6:0.377858 7:-0.127444 8:-0.212235 9:-0.161462 10:-0.130618 11:-0.535568 12:0.375412 13:-0.169252 14:-0.248439 15:-0.177409 16:-0.200843 17:-0.484011 18:-0.875887 
0.5 1:-0.127444 2:-0.212235 3:-0.161462 4:-0.130618 5:-0.535568 6:0.377496 7:-0.169252 8:-0.248439 9:-0.177409 10:-0.200843 11:-0.484011 12:-0.875887 13:-0.20027 14:-0.290886 15:-0.274419 16:-0.251404 17:-0.527273 18:-0.854768 
-0.5 1:-0.169252 2:-0.248439 3:-0.177409 4:-0.200843 5:-0.484011 6:-0.869628 7:-0.20027 8:-0.290886 9:-0.274419 10:-0.251404 11:-0.527273 12:-0.854768 13:-0.274444 14:-0.104869 15:-0.124252 16:-0.205056 17:-0.137001 18:-0.495434 
-0.5 1:-0.20027 2:-0.290886 3:-0.274419 4:-0.251404 5:-0.527273 6:-0.848579 7:-0.274444 8:-0.104869 9:-0.124252 10:-0.205056 11:-0.137001 12:-0.495434 13:-0.124747 14:-0.168539 15:-0.149502 16:-0.126404 17:-0.421332 18:-0.283478 
-0.5 1:-0.274444 2:-0.104869 3:-0.124252 4:-0.205056 5:-0.137001 6:-0.490445 7:-0.124747 8:-0.168539 9:-0.149502 10:-0.126404 11:-0.421332 12:-0.283478 13:-0.0923803 14:-0.0973783 15:-0.184053 16:-0.139045 17:-0.37685 18:0.0522961 
0.5 1:-0.124747 2:-0.168539 3:-0.149502 4:-0.126404 5:-0.421332 6:-0.279196 7:-0.0923803 8:-0.0973783 9:-0.184053 10:-0.139045 11:-0.37685 12:0.0522961 13:-0.228591 14:-0.167291 15:-0.222591 16:-0.271067 17:-0.483558 18:0.278175 
0.5 1:-0.0923803 2:-0.0973783 3:-0.184053 4:-0.139045 5:-0.37685 6:0.055458 7:-0.228591 8:-0.167291 9:-0.222591 10:-0.271067 11:-0.483558 12:0.278175 13:-0.220499 14:-0.235955 15:-0.196013 16:-0.228933 17:-0.694529 18:0.306069 
0.5 1:-0.228591 2:-0.167291 3:-0.222591 4:-0.271067 5:-0.483558 6:0.280584 7:-0.220499 8:-0.235955 9:-0.196013 10:-0.228933 11:-0.694529 12:0.306069 13:-0.196224 14:-0.204744 15:-0.121595 16:-0.186798 17:-0.535078 18:0.227953 
0.5 1:-0.220499 2:-0.235955 3:-0.196013 4:-0.228933 5:-0.694529 6:0.308384 7:-0.196224 8:-0.204744 9:-0.121595 10:-0.186798 11:-0.535078 12:0.227953 13:-0.0950775 14:-0.0986267 15:-0.0392027 16:-0.0224719 17:-0.190344 18:0.399546 
-0.5 1:-0.196224 2:-0.204744 3:-0.121595 4:-0.186798 5:-0.535078 6:0.230529 7:-0.0950775 8:-0.0986267 9:-0.0392027 10:-0.0224719 11:-0.190344 12:0.399546 13:-0.0357384 14:0.00249688 15:0.0325581 16:-0.00842697 17:-0.166853 18:0.375772 
0.5 1:-0.0950775 2:-0.0986267 3:-0.0392027 4:-0.0224719 5:-0.190344 6:0.401549 7:-0.0357384 8:0.00249688 9:0.0325581 10:-0.00842697 11:-0.166853 12:0.375772 13:0.0532704 14:-0.0324594 15:-0.0923588 16:-0.0154494 17:-0.477495 18:0.373333 
0.5 1:-0.0357384 2:0.00249688 3:0.0325581 4:-0.00842697 5:-0.166853 6:0.377855 7:0.0532704 8:-0.0324594 9:-0.0923588 10:-0.0154494 11:-0.477495 12:0.373333 13:-0.0896831 14:-0.142322 15:-0.0843854 16:-0.0856742 17:-0.648183 18:-0.862745 
-0.5 1:0.0532704 2:-0.0324594 3:-0.0923588 4:-0.0154494 5:-0.477495 6:0.375424 7:-0.0896831 8:-0.142322 9:-0.0843854 10:-0.0856742 11:-0.648183 12:-0.862745 13:-0.0775455 14:0.141074 15:0.259801 16:-0.00140449 17:0.483977 18:-0.836294 
0.5 1:-0.0896831 2:-0.142322 3:-0.0843854 4:-0.0856742 5:-0.648183 6:-0.85653 7:-0.0775455 8:0.141074 9:0.259801 10:-0.00140449 11:0.483977 12:-0.836294 13:0.312205 14:0.182272 15:0.154817 16:0.213483 17:0.0517538 18:-0.483066 
-0.5 1:-0.0775455 2:0.141074 3:0.259801 4:-0.00140449 5:0.483977 6:-0.830168 7:0.312205 8:0.182272 9:0.154817 10:0.213483 11:0.0517538 12:-0.483066 13:0.149022 14:0.174782 15:0.169435 16:0.195225 17:-0.335519 18:-0.273453 
-0.5 1:0.312205 2:0.182272 3:0.154817 4:0.213483 5:0.0517538 6:-0.478118 7:0.149022 8:0.174782 9:0.169435 10:0.195225 11:-0.335519 12:-0.273453 13:0.177343 14:0.0736579 15:0.0498339 16:0.109551 17:-0.523144 18:0.0563782 
0.5 1:0.177343 2:0.0736579 3:0.0498339 4:0.109551 5:-0.523144 6:0.0595265 7:0.0586649 8:0.011236 9:-0.0219269 10:0.0547753 11:-0.572572 12:0.278438 13:-0.0519218 14:-0.0736579 15:-0.0152824 16:-0.00140449 17:-0.688288 18:0.306112 
-0.5 1:0.0586649 2:0.011236 3:-0.0219269 4:0.0547753 5:-0.572572 6:0.280846 7:-0.0519218 8:-0.0736579 9:-0.0152824 10:-0.00140449 11:-0.688288 12:0.306112 13:-0.0236008 14:-0.0799001 15:-0.00332226 16:0.0266854 17:-0.800448 18:0.229089 
0.5 1:-0.0519218 2:-0.0736579 3:-0.0152824 4:-0.00140449 5:-0.688288 6:0.308427 7:-0.0236008 8:-0.0799001 9:-0.00332226 10:0.0266854 11:-0.800448 12:0.229089 13:0.00876601 14:-0.0861423 15:-0.178738 16:-0.125 17:-0.614875 18:0.395933 
0.5 1:-0.0236008 2:-0.0799001 3:-0.00332226 4:0.0266854 5:-0.800448 6:0.231661 7:0.00876601 8:-0.0861423 9:-0.178738 10:-0.125 11:-0.614875 12:0.395933 13:-0.159811 14:-0.217228 15:-0.122924 16:-0.160112 17:-0.704434 18:0.373328 
-0.5 1:0.00876601 2:-0.0861423 3:-0.178738 4:-0.125 5:-0.614875 6:0.397948 7:-0.159811 8:-0.217228 9:-0.122924 10:-0.160112 11:-0.704434 12:0.373328 13:-0.0788941 14:-0.142322 15:-0.106977 16:-0.0407303 17:-0.719882 18:0.37118 
0.5 1:-0.159811 2:-0.217228 3:-0.122924 4:-0.160112 5:-0.704434 6:0.375419 7:-0.0788941 8:-0.142322 9:-0.106977 10:-0.0407303 11:-0.719882 12:0.37118 13:-0.267701 14:-0.273408 15:-0.339535 16:-0.310393 17:-0.59396 18:-0.85453 
0.5 1:-0.0788941 2:-0.142322 3:-0.106977 4:-0.0407303 5:-0.719882 6:0.373278 7:-0.267701 8:-0.273408 9:-0.339535 10:-0.310393 11:-0.59396 12:-0.85453 13:-0.329737 14:-0.333333 15:-0.265116 16:-0.26264 17:-0.736832 18:-0.827274 
0.5 1:-0.267701 2:-0.273408 3:-0.339535 4:-0.310393 5:-0.59396 6:-0.848343 7:-0.329737 8:-0.333333 9:-0.265116 10:-0.26264 11:-0.736832 12:-0.827274 13:-0.262306 14:-0.156055 15:-0.116279 16:-0.19382 17:-0.526036 18:-0.475757 
-0.5 1:-0.329737 2:-0.333333 3:-0.265116 4:-0.26264 5:-0.736832 6:-0.821177 7:-0.262306 8:-0.156055 9:-0.116279 10:-0.19382 11:-0.526036 12:-0.475757 13:-0.132839 14:-0.0699126 15:-0.0524917 16:-0.0786517 17:-0.443896 18:-0.267541 
0.5 1:-0.262306 2:-0.156055 3:-0.116279 4:-0.19382 5:-0.526036 6:-0.470834 7:-0.132839 8:-0.0699126 9:-0.0524917 10:-0.0786517 11:-0.443896 12:-0.267541 13:0.00202293 14:-0.0649189 15:-0.076412 16:-0.0435393 17:-0.553147 18:0.0582503 
-0.5 1:-0.132839 2:-0.0699126 3:-0.0524917 4:-0.0786517 5:-0.443896 6:-0.263312 7:0.00202293 8:-0.0649189 9:-0.076412 10:-0.0435393 11:-0.553147 12:0.0582503 13:-0.0492245 14:0.0174782 15:0.0803987 16:0.00561798 17:-0.212129 18:0.280228 
-0.5 1:0.00202293 2:-0.0649189 3:-0.076412 4:-0.0435393 5:-0.553147 6:0.0613923 7:-0.0492245 8:0.0174782 9:0.0803987 10:0.00561798 11:-0.212129 12:0.280228 13:0.0937289 14:-0.0174782 15:0.033887 16:0.0449438 17:-0.496151 18:0.306891 
-0.5 1:-0.0492245 2:0.0174782 3:0.0803987 4:0.00561798 5:-0.212129 6:0.282629 7:0.0937289 8:-0.0174782 9:0.033887 10:0.0449438 11:-0.496151 12:0.306891 13:0.0155091 14:-0.0486891 15:-0.033887 16:0.0280899 17:-0.714989 18:0.229689 
0.5 1:0.0937289 2:-0.0174782 3:0.033887 4:0.0449438 5:-0.496151 6:0.309203 7:0.0155091 8:-0.0486891 9:-0.033887 10:0.0280899 11:-0.714989 12:0.229689 13:-0.0384356 14:-0.0486891 15:-0.0325581 16:0.0154494 17:-0.651165 18:0.394745 
-0.5 1:0.0155091 2:-0.0486891 3:-0.033887 4:0.0280899 5:-0.714989 6:0.232259 7:-0.0384356 8:-0.0486891 9:-0.0325581 10:0.0154494 11:-0.651165 12:0.394745 13:-0.0209036 14:-0.0274657 15:-0.0219269 16:0.0547753 17:-0.644156 18:0.372546 
0.5 1:-0.0384356 2:-0.0486891 3:-0.0325581 4:0.0154494 5:-0.651165 6:0.396764 7:-0.0209036 8:-0.0274657 9:-0.0219269 10:0.0547753 11:-0.644156 12:0.372546 13:-0.065408 14:-0.167291 15:-0.16412 16:-0.0983146 17:-0.679867 18:0.368336 
-0.5 1:-0.0209036 2:-0.0274657 3:-0.0219269 4:0.0547753 5:-0.644156 6:0.37464 7:-0.065408 8:-0.167291 9:-0.16412 10:-0.0983146 11:-0.679867 12:0.368336 13:-0.149022 14:-0.207241 15:-0.122924 16:-0.141854 17:-0.699963 18:-0.843717 
-0.5 1:-0.065408 2:-0.167291 3:-0.16412 4:-0.0983146 5:-0.679867 6:0.370444 7:-0.149022 8:-0.207241 9:-0.122924 10:-0.141854 11:-0.699963 12:-0.843717 13:-0.0991234 14:-0.19226 15:-0.181395 16:-0.113764 17:-0.792867 18:-0.817656 
-0.5 1:-0.149022 2:-0.207241 3:-0.122924 4:-0.141854 5:-0.699963 6:-0.837566 7:-0.0991234 8:-0.19226 9:-0.181395 10:-0.113764 11:-0.792867 12:-0.817656 13:-0.132839 14:-0.217228 15:-0.241196 16:-0.172753 17:-0.735504 18:-0.470756 
0.5 1:-0.0991234 2:-0.19226 3:-0.181395 4:-0.113764 5:-0.792867 6:-0.811592 7:-0.132839 8:-0.217228 9:-0.241196 10:-0.172753 11:-0.735504 12:-0.470756 13:-0.238031 14:-0.302122 15:-0.315615 16:-0.268258 17:-0.785415 18:-0.265816 
0.5 1:-0.132839 2:-0.217228 3:-0.241196 4:-0.172753 5:-0.735504 6:-0.465849 7:-0.238031 8:-0.302122 9:-0.315615 10:-0.268258 11:-0.785415 12:-0.265816 13:-0.308159 14:-0.348315 15:-0.286379 16:-0.255618 17:-0.860505 18:0.0569905 
0.5 1:-0.238031 2:-0.302122 3:-0.315615 4:-0.268258 5:-0.785415 6:-0.261593 7:-0.308159 8:-0.348315 9:-0.286379 10:-0.255618 11:-0.860505 12:0.0569905 13:-0.281187 14:-0.33583 15:-0.250498 16:-0.22191 17:-0.896676 18:0.277185 
-0.5 1:-0.308159 2:-0.348315 3:-0.286379 4:-0.255618 5:-0.860505 6:0.0601367 7:-0.281187 8:-0.33583 9:-0.250498 10:-0.22191 11:-0.896676 12:0.277185 13:-0.242077 14:-0.284644 15:-0.230565 16:-0.185393 17:-0.860799 18:0.303871 
0.5 1:-0.281187 2:-0.33583 3:-0.250498 4:-0.22191 5:-0.896676 6:0.279597 7:-0.242077 8:-0.284644 9:-0.230565 10:-0.185393 11:-0.860799 12:0.303871 13:-0.229939 14:-0.3196 15:-0.279734 16:-0.226124 17:-0.85546 18:0.226783 
0.5 1:-0.242077 2:-0.284644 3:-0.230565 4:-0.185393 5:-0.860799 6:0.306194 7:-0.229939 8:-0.3196 9:-0.279734 10:-0.226124 11:-0.85546 12:0.226783 13:-0.265003 14:-0.27965 15:-0.243854 16:-0.195225 17:-0.805703 18:0.390673 
-0.5 1:-0.229939 2:-0.3196 3:-0.279734 4:-0.226124 5:-0.85546 6:0.229363 7:-0.265003 8:-0.27965 9:-0.243854 10:-0.195225 11:-0.805703 12:0.390673 13:-0.240728 14:-0.302122 15:-0.219934 16:-0.182584 17:-0.853183 18:0.369055 
-0.5 1:-0.265003 2:-0.27965 3:-0.243854 4:-0.195225 5:-0.805703 6:0.392706 7:-0.240728 8:-0.302122 9:-0.219934 10:-0.182584 11:-0.853183 12:0.369055 13:-0.215105 14:-0.287141 15:-0.241196 16:-0.176966 17:-0.831024 18:0.364609 
0.5 1:-0.240728 2:-0.302122 3:-0.219934 4:-0.182584 5:-0.853183 6:0.37116 7:-0.215105 8:-0.287141 9:-0.241196 10:-0.176966 11:-0.831024 12:0.364609 13:-0.24882 14:-0.337079 15:-0.290365 16:-0.235955 17:-0.866265 18:-0.835923 
0.5 1:-0.215105 2:-0.287141 3:-0.241196 4:-0.176966 5:-0.831024 6:0.366729 7:-0.24882 8:-0.337079 9:-0.290365 10:-0.235955 11:-0.866265 12:-0.835923 13:-0.290627 14:-0.27965 15:-0.189369 16:-0.22191 17:-0.751631 18:-0.808774 
0.5 1:-0.24882 2:-0.337079 3:-0.290365 4:-0.235955 5:-0.866265 6:-0.829798 7:-0.290627 8:-0.27965 9:-0.189369 10:-0.22191 11:-0.751631 12:-0.808774 13:-0.18004 14:-0.151061 15:-0.109635 16:-0.13764 17:-0.522519 18:-0.464279 
0.5 1:-0.290627 2:-0.27965 3:-0.189369 4:-0.22191 5:-0.751631 6:-0.802739 7:-0.18004 8:-0.151061 9:-0.109635 10:-0.13764 11:-0.522519 12:-0.464279 13:-0.0815914 14:-0.156055 15:-0.0883721 16:-0.0491573 17:-0.686519 18:-0.261111 
-0.5 1:-0.18004 2:-0.151061 3:-0.109635 4:-0.13764 5:-0.522519 6:-0.459394 7:-0.0815914 8:-0.156055 9:-0.0883721 10:-0.0491573 11:-0.686519 12:-0.261111 13:-0.100472 14:-0.133583 15:-0.0724252 16:-0.0856742 17:-0.534497 18:0.0587077 
-0.5 1:-0.0815914 2:-0.156055 3:-0.0883721 4:-0.0491573 5:-0.686519 6:-0.256904 7:-0.100472 8:-0.133583 9:-0.0724252 10:-0.0856742 11:-0.534497 12:0.0587077 13:-0.0748483 14:-0.134831 15:-0.089701 16:-0.0351124 17:-0.772106 18:0.276502 
0.5 1:-0.100472 2:-0.133583 3:-0.0724252 4:-0.0856742 5:-0.534497 6:0.0618482 7:-0.0748483 8:-0.134831 9:-0.089701 10:-0.0351124 11:-0.772106 12:0.276502 13:-0.0923803 14:-0.19226 15:-0.144186 16:-0.0969101 17:-0.776776 18:0.302201 
-0.5 1:-0.0748483 2:-0.134831 3:-0.089701 4:-0.0351124 5:-0.772106 6:0.278916 7:-0.0923803 8:-0.19226 9:-0.144186 10:-0.0969101 11:-0.776776 12:0.302201 13:-0.13149 14:-0.157303 15:-0.0936877 16:-0.0856742 17:-0.654941 18:0.226544 
-0.5 1:-0.0923803 2:-0.19226 3:-0.144186 4:-0.0969101 5:-0.776776 6:0.304529 7:-0.13149 8:-0.157303 9:-0.0936877 10:-0.0856742 11:-0.654941 12:0.226544 13:-0.13149 14:-0.19226 15:-0.105648 16:-0.120787 17:-0.795533 18:0.388692 
-0.5 1:-0.13149 2:-0.157303 3:-0.0936877 4:-0.0856742 5:-0.654941 6:0.229124 7:-0.13149 8:-0.19226 9:-0.105648 10:-0.120787 11:-0.795533 12:0.388692 13:-0.0937289 14:-0.167291 15:-0.113621 16:-0.0435393 17:-0.792543 18:0.367186 
0.5 1:-0.13149 2:-0.19226 3:-0.105648 4:-0.120787 5:-0.795533 6:0.390732 7:-0.0937289 8:-0.167291 9:-0.113621 10:-0.0435393 11:-0.792543 12:0.367186 13:-0.132839 14:-0.194757 15:-0.16412 16:-0.0997191 17:-0.803779 18:0.362128 
0.5 1:-0.0937289 2:-0.167291 3:-0.113621 4:-0.0435393 5:-0.792543 6:0.369297 7:-0.132839 8:-0.194757 9:-0.16412 10:-0.0997191 11:-0.803779 12:0.362128 13:-0.147674 14:-0.194757 15:-0.116279 16:-0.0926966 17:-0.775232 18:-0.826333 
0.5 1:-0.132839 2:-0.194757 3:-0.16412 4:-0.0997191 5:-0.803779 6:0.364256 7:-0.147674 8:-0.194757 9:-0.116279 10:-0.0926966 11:-0.775232 12:-0.826333 13:-0.101821 14:-0.142322 15:-0.0631229 16:-0.0491573 17:-0.622207 18:-0.798794 
0.5 1:-0.147674 2:-0.194757 3:-0.116279 4:-0.0926966 5:-0.775232 6:-0.82024 7:-0.101821 8:-0.142322 9:-0.0631229 10:-0.0491573 11:-0.622207 12:-0.798794 13:-0.0532704 14:-0.107366 15:-0.0152824 16:-0.0126404 17:-0.495932 18:-0.456976 
0.5 1:-0.101821 2:-0.142322 3:-0.0631229 4:-0.0491573 5:-0.622207 6:-0.792793 7:-0.0532704 8:-0.107366 9:-0.0152824 10:-0.0126404 11:-0.495932 12:-0.456976 13:-0.00606878 14:-0.031211 15:0.0139535 16:0.0505618 17:-0.394491 18:-0.255374 
0.5 1:-0.0532704 2:-0.107366 3:-0.0152824 4:-0.0126404 5:-0.495932 6:-0.452115 7:-0.00606878 8:-0.031211 9:0.0139535 10:0.0505618 11:-0.394491 12:-0.255374 13:0.0182063 14:-0.0474407 15:0.0431894 16:0.0744382 17:-0.527893 18:0.0618052 
-0.5 1:-0.00606878 2:-0.031211 3:0.0139535 4:0.0505618 5:-0.394491 6:-0.251185 7:0.0182063 8:-0.0474407 9:0.0431894 10:0.0744382 11:-0.527893 12:0.0618052 13:0.0492245 15:0.0591362 16:0.0941011 17:-0.464732 18:0.277763 
0.5 1:0.0182063 2:-0.0474407 3:0.0431894 4:0.0744382 5:-0.527893 6:0.0649354 7:0.0492245 9:0.0591362 10:0.0941011 11:-0.464732 12:0.277763 13:0.065408 14:-0.011236 15:0.0285714 16:0.103933 17:-0.550221 18:0.302829 
-0.5 1:0.0492245 3:0.0591362 4:0.0941011 5:-0.464732 6:0.280173 7:0.065408 8:-0.011236 9:0.0285714 10:0.103933 11:-0.550221 12:0.302829 13:0.0694538 14:0.0174782 15:0.0790698 16:0.136236 17:-0.40758 18:0.228506 
-0.5 1:0.065408 2:-0.011236 3:0.0285714 4:0.103933 5:-0.550221 6:0.305155 7:0.0694538 8:0.0174782 9:0.0790698 10:0.136236 11:-0.40758 12:0.228506 13:0.0856372 14:-0.0187266 15:0.0431894 16:0.0589888 17:-0.404864 18:0.388706 
0.5 1:0.0694538 2:0.0174782 3:0.0790698 4:0.136236 5:-0.40758 6:0.23108 7:0.0856372 8:-0.0187266 9:0.0431894 10:0.0589888 11:-0.404864 12:0.388706 13:0.0424815 14:-0.0674157 15:-0.0259136 16:0.0407303 17:-0.589752 18:0.366528 
0.5 1:0.0856372 2:-0.0187266 3:0.0431894 4:0.0589888 5:-0.404864 6:0.390745 7:0.0424815 8:-0.0674157 9:-0.0259136 10:0.0407303 11:-0.589752 12:0.366528 13:-0.0384356 14:-0.062422 15:0.0166113 16:0.0266854 17:-0.587491 18:0.362051 
0.5 1:0.0424815 2:-0.0674157 3:-0.0259136 4:0.0407303 5:-0.589752 6:0.368642 7:-0.0384356 8:-0.062422 9:0.0166113 10:0.0266854 11:-0.587491 12:0.362051 13:0.0289953 14:-0.0374532 15:0.0365449 16:0.103933 17:-0.645946 18:-0.815407 
-0.5 1:-0.0384356 2:-0.062422 3:0.0166113 4:0.0266854 5:-0.587491 6:0.364179 7:0.0289953 8:-0.0374532 9:0.0365449 10:0.103933 11:-0.645946 12:-0.815407 13:0.0411328 14:0.00998752 15:0.100332 16:0.0856742 17:-0.320027 18:-0.787376 
0.5 1:0.0289953 2:-0.0374532 3:0.0365449 4:0.103933 5:-0.645946 6:-0.80935 7:0.0411328 8:0.00998752 9:0.100332 10:0.0856742 11:-0.320027 12:-0.787376 13:0.123399 14:0.0411985 15:0.0883721 16:0.147472 17:-0.294903 18:-0.448822 
-0.5 1:0.0411328 2:0.00998752 3:0.100332 4:0.0856742 5:-0.320027 6:-0.781413 7:0.123399 8:0.0411985 9:0.0883721 10:0.147472 11:-0.294903 12:-0.448822 13:0.0937289 14:0.128589 15:0.2 16:0.150281 17:-0.119112 18:-0.247686 
0.5 1:0.123399 2:0.0411985 3:0.0883721 4:0.147472 5:-0.294903 6:-0.443988 7:0.0937289 8:0.128589 9:0.2 10:0.150281 11:-0.119112 12:-0.247686 13:0.225893 14:0.113608 15:0.198671 16:0.23736 17:-0.364722 18:0.0666227 
0.5 1:0.0937289 2:0.128589 3:0.2 4:0.150281 5:-0.119112 6:-0.243524 7:0.225893 8:0.113608 9:0.198671 10:0.23736 11:-0.364722 12:0.0666227 13:0.223196 14:0.182272 15:0.214618 16:0.258427 17:-0.288659 18:0.280842 
-0.5 1:0.225893 2:0.113608 3:0.198671 4:0.23736 5:-0.364722 6:0.0697368 7:0.223196 8:0.182272 9:0.214618 10:0.258427 11:-0.288659 12:0.280842 13:0.224545 14:0.164794 15:0.265116 16:0.280899 17:-0.281585 18:0.306285 
-0.5 1:0.223196 2:0.182272 3:0.214618 4:0.258427 5:-0.288659 6:0.283242 7:0.224545 8:0.164794 9:0.265116 10:0.280899 11:-0.281585 12:0.306285 13:0.291976 14:0.166042 15:0.181395 16:0.22191 17:-0.242809 18:0.231589 
0.5 1:0.224545 2:0.164794 3:0.265116 4:0.280899 5:-0.281585 6:0.3086 7:0.291976 8:0.166042 9:0.181395 10:0.22191 11:-0.242809 12:0.231589 13:0.188132 14:0.107366 15:0.0990033 16:0.155899 17:-0.41502 18:0.389388 
-0.5 1:0.188132 2:0.107366 3:0.0990033 4:0.155899 5:-0.41502 6:0.391425 7:0.109912 8:0.207241 9:0.324917 10:0.183989 11:0.0219925 12:0.3701 13:0.360755 14:0.254682 15:0.327575 16:0.386236 17:-0.215804 18:0.365677 
-0.5 1:0.109912 2:0.207241 3:0.324917 4:0.183989 5:0.0219925 6:0.372201 7:0.360755 8:0.254682 9:0.327575 10:0.386236 11:-0.215804 12:0.365677 13:0.337829 14:0.244694 15:0.290365 16:0.325843 17:-0.383832 18:-0.802086 
0.5 1:0.360755 2:0.254682 3:0.327575 4:0.386236 5:-0.215804 6:0.367793 7:0.337829 8:0.244694 9:0.290365 10:0.325843 11:-0.383832 12:-0.802086 13:0.302765 14:0.182272 15:0.140199 16:0.230337 17:-0.506568 18:-0.776124 
0.5 1:0.337829 2:0.244694 3:0.290365 4:0.325843 5:-0.383832 6:-0.796074 7:0.302765 8:0.182272 9:0.140199 10:0.230337 11:-0.506568 12:-0.776124 13:0.136885 14:0.102372 15:0.190698 16:0.157303 17:-0.548638 18:-0.439919 
0.5 1:0.302765 2:0.182272 3:0.140199 4:0.230337 5:-0.506568 6:-0.770199 7:0.136885 8:0.102372 9:0.190698 10:0.157303 11:-0.548638 12:-0.439919 13:0.224545 14:0.248439 15:0.302326 16:0.314607 17:-0.132202 18:-0.239228 
0.5 1:0.136885 2:0.102372 3:0.190698 4:0.157303 5:-0.548638 6:-0.435115 7:0.224545 8:0.248439 9:0.302326 10:0.314607 11:-0.132202 12:-0.239228 13:0.283884 14:0.39201 15:0.372757 16:0.307584 17:0.368648 18:0.0732019 
0.5 1:0.224545 2:0.248439 3:0.302326 4:0.314607 5:-0.132202 6:-0.235093 7:0.283884 8:0.39201 9:0.372757 10:0.307584 11:0.368648 12:0.0732019 13:0.379636 14:0.325843 15:0.436545 16:0.379213 17:-0.179093 18:0.286326 
0.5 1:0.283884 2:0.39201 3:0.372757 4:0.307584 5:0.368648 6:0.0762941 7:0.379636 8:0.325843 9:0.436545 10:0.379213 11:-0.179093 12:0.286326 13:0.47269 14:0.394507 15:0.464452 16:0.532303 17:-0.173294 18:0.311854 
0.5 1:0.379636 2:0.325843 3:0.436545 4:0.379213 5:-0.179093 6:0.288707 7:0.47269 8:0.394507 9:0.464452 10:0.532303 11:-0.173294 12:0.311854 13:0.486177 14:0.707865 15:0.863123 16:0.532303 17:0.428941 18:0.242344 
-0.5 1:0.47269 2:0.394507 3:0.464452 4:0.532303 5:-0.173294 6:0.31415 7:0.486177 8:0.707865 9:0.863123 10:0.532303 11:0.428941 12:0.242344 13:0.923129 14:1 15:1 16:1 17:1 18:0.40035 
-0.5 1:0.486177 2:0.707865 3:0.863123 4:0.532303 5:0.428941 6:0.244872 7:0.923129 8:1 9:1 10:1 11:1 12:0.40035 13:1 14:0.853933 15:0.933555 16:1 17:0.0726611 18:0.380418 
0.5 1:0.923129 2:1 3:1 4:1 5:1 6:0.40235 7:1 8:0.853933 9:0.933555 10:1 11:0.0726611 12:0.380418 13:0.916386 14:0.867665 15:0.703654 16:0.771067 17:0.0805782 18:0.373379 
-0.5 1:1 2:0.853933 3:0.933555 4:1 5:0.0726611 6:0.382485 7:0.916386 8:0.867665 9:0.703654 10:0.771067 11:0.0805782 12:0.373379 13:0.878624 14:0.850187 15:0.893688 16:0.897472 17:0.106199 18:-0.782656 
-0.5 1:0.916386 2:0.867665 3:0.703654 4:0.771067 5:0.0805782 6:0.37547 7:0.878624 8:0.850187 9:0.893688 10:0.897472 11:0.106199 12:-0.782656 13:0.905597 14:0.731586 15:0.7701 16:0.867978 17:-0.327783 18:-0.758378 
